~h "sp"
<BEGINHMM>
<NUMSTATES> 3
<STATE> 2
<MEAN> 39
 -1.753488e+01 -1.016691e+01 -3.245795e+00 -6.498575e+00 -1.219650e+00 -5.906500e+00 -1.315215e-01 -1.702600e+00 3.581990e+00 -2.053705e+00 9.248824e-01 -1.747512e+00 5.703942e+01 -7.772436e-02 -3.049804e-02 -4.130924e-02 7.574575e-04 -2.843613e-02 -8.805647e-03 -4.001443e-02 -3.626225e-02 1.483304e-02 -2.768424e-03 -1.654997e-03 2.306009e-02 -8.199208e-02 1.217746e-02 6.758274e-03 2.258529e-02 1.457597e-02 -2.488537e-04 8.140549e-03 5.102021e-03 -6.817635e-03 5.517459e-03 8.047096e-03 5.139393e-03 -5.832398e-03 1.487765e-02
<VARIANCE> 39
 9.547861e+00 3.441484e+01 1.430270e+01 1.187071e+01 1.348620e+01 1.769712e+01 1.623253e+01 1.427927e+01 1.666719e+01 1.441436e+01 1.403392e+01 1.155591e+01 2.310643e+01 5.377653e-01 9.519323e-01 1.003270e+00 1.160063e+00 1.216211e+00 1.292646e+00 1.388270e+00 1.498859e+00 1.634523e+00 1.490084e+00 1.388709e+00 1.218868e+00 6.948498e-01 8.954623e-02 1.523903e-01 1.850669e-01 2.265851e-01 2.380871e-01 2.568082e-01 2.722043e-01 3.077223e-01 3.358712e-01 3.012694e-01 2.723328e-01 2.448621e-01 1.110237e-01
<GCONST> 8.902079e+01
<TRANSP> 3
 0.000000e+00 1.000000e+00 0.000000e+00
 0.000000e+00 9.369882e-01 6.301180e-02
 0.000000e+00 0.000000e+00 0.000000e+00
<ENDHMM>
